#Parameter# /_1 {3,10} 481 ZERO_GRAD
+7.07291245e-01 +1.07509688e-01 -4.53780860e-01 +8.67930725e-02 +9.58667517e-01 -4.35037899e+00 -9.12914872e-01 +1.54753554e+00 -7.73675859e-01 -6.10366166e-01 -7.00506628e-01 +2.32572183e-02 +1.15930825e-01 -7.53095627e-01 +2.44080567e+00 +3.60994674e-02 -2.11807609e+00 +2.36654091e+00 +1.93178147e-01 +4.47031379e-01 +9.62005436e-01 -1.28862894e+00 +5.57085633e-01 +8.47212374e-01 +9.45155144e-01 -9.44142818e-01 -1.46551275e+00 +8.04782987e-01 +5.86669385e-01 -2.57443166e+00 
#Parameter# /_2 {3} 49 ZERO_GRAD
-5.76692104e-01 +8.52199674e-01 -7.20876694e-01 
#Parameter# /_3 {10,3} 481 ZERO_GRAD
+2.85269648e-01 -1.95184067e-01 +6.22419477e-01 -8.42833295e-02 -1.85704127e-01 -8.79930079e-01 -1.29319355e-01 -1.18688047e+00 -1.54948556e+00 -9.26015556e-01 -3.66414338e-01 +4.77943271e-01 +3.71578991e-01 +7.95280710e-02 -4.47950095e-01 -3.82286012e-01 +8.66293728e-01 +6.22377276e-01 +2.71831661e-01 +2.37769902e-01 +1.08024073e+00 -2.74989814e-01 -1.94829348e-02 -9.82679546e-01 +8.23371768e-01 +2.47988090e-01 +1.90751076e-01 +3.98813695e-01 +1.10646451e+00 +1.36524165e+00 
#Parameter# /_4 {10,10} 1601 ZERO_GRAD
-4.94642377e-01 +7.21287847e-01 -1.08052289e+00 -7.95812845e-01 -8.62742513e-02 +1.06883049e+00 -6.36836708e-01 -7.82083571e-01 -3.20471227e-01 +7.15704262e-01 -4.99987930e-01 +6.19671762e-01 -7.63536274e-01 +2.01934025e-01 +5.33556283e-01 -2.54186940e+00 +2.62088060e-01 -1.82845533e-01 -6.44482017e-01 -2.26118374e+00 -1.88032445e-02 +4.83175218e-01 -2.31584117e-01 +8.21000159e-01 -3.75439465e-01 +8.53777051e-01 +9.68021631e-01 +8.46729875e-01 +3.86887103e-01 +6.09983504e-01 +8.02744448e-01 -5.10591030e-01 +2.92640352e+00 -4.68442112e-01 -5.51802039e-01 -3.07574296e+00 -1.27586627e+00 -6.97501123e-01 -1.02190697e+00 -1.61743164e+00 +1.17036378e+00 -1.44100666e-01 +8.22102726e-01 -1.62519991e+00 +2.22353905e-01 +1.21114053e-01 -5.67001522e-01 -1.10297561e+00 +1.33559510e-01 -5.35058796e-01 +2.80739695e-01 -6.94833100e-01 -6.73128117e-04 -1.40078282e+00 -6.67748213e-01 -8.36068809e-01 -1.73810601e-01 +2.57205516e-01 -2.14382946e-01 +8.22363794e-02 -1.77252650e-01 -1.65475476e+00 +1.66250423e-01 +9.29080099e-02 -4.90129262e-01 +6.64735913e-01 -1.48716688e+00 +9.20408905e-01 +1.38727033e+00 +5.50756156e-01 +8.02859247e-01 -1.83994859e-01 +8.87149990e-01 +8.78562629e-01 -6.99145854e-01 +4.30502504e-01 -3.19486916e-01 +7.58037388e-01 +1.35556614e+00 -2.16677144e-01 -6.43749058e-01 -1.16910189e-01 -1.07524514e+00 -1.12100220e+00 +3.76608402e-01 -2.95053512e-01 +9.73488688e-02 -5.97690582e-01 -6.22315586e-01 -2.04202488e-01 +4.29783344e-01 +3.30095232e-01 -1.92941463e+00 -5.66994369e-01 -3.09600294e-01 -3.81657779e-01 +2.18094379e-01 -6.13691747e-01 -1.04487574e+00 -1.07621992e+00 
#Parameter# /_5 {10} 161 ZERO_GRAD
-2.93124139e-01 -5.20986319e-01 +1.38892815e-01 +4.95630711e-01 +5.23346484e-01 -8.33376765e-01 +4.93148178e-01 -1.12848639e+00 -1.35601377e+00 -1.43374288e+00 
#Parameter# /_6 {10,3} 481 ZERO_GRAD
+4.63671923e-01 -2.85857111e-01 +4.67742860e-01 -5.23694932e-01 +3.51903379e-01 +3.22133787e-02 +5.90410531e-02 -5.51214814e-01 -3.68496269e-01 +1.21662365e-02 +1.92071378e-01 +1.71785895e-02 -2.57207930e-01 +5.02065539e-01 -3.74184221e-01 -6.60226285e-01 +1.44315988e-01 -4.75325257e-01 -1.75965816e-01 +2.55351096e-01 +4.13021326e-01 -5.03501534e-01 -2.70101845e-01 -5.13434172e-01 +6.69416010e-01 +2.00109795e-01 -6.28368616e-01 -6.57393813e-01 -6.44137084e-01 +6.27229869e-01 
#Parameter# /_7 {10,10} 1601 ZERO_GRAD
+4.21932667e-01 +4.83158499e-01 -5.20571172e-01 -5.26291728e-01 +1.98882729e-01 +2.73307472e-01 +2.78648823e-01 -4.58335370e-01 -1.90805450e-01 +8.84471908e-02 +5.61473556e-02 -5.24723828e-01 +1.57730773e-01 -5.17540991e-01 -3.73919964e-01 -7.19465837e-02 -3.76531839e-01 -4.19992730e-02 +3.04741442e-01 -1.62874311e-01 -2.14173391e-01 +1.87286004e-01 +2.29800888e-03 -1.00411110e-01 -4.96920705e-01 -3.16474676e-01 +1.42436922e-01 +2.34986842e-01 +4.40758690e-02 -4.25808370e-01 -4.31822538e-01 -2.25394651e-01 -3.44068199e-01 +2.00171113e-01 -4.98658031e-01 +3.78933221e-01 -2.67092913e-01 +5.16186893e-01 +4.62708443e-01 +1.16526522e-01 +5.27951062e-01 +9.10874754e-02 +5.65553736e-03 -5.29470325e-01 -3.47637475e-01 +4.84957069e-01 -5.14480114e-01 +4.02484626e-01 -1.29123360e-01 -3.25196028e-01 -3.24687690e-01 +7.47138560e-02 +1.62345409e-01 +4.59431618e-01 +3.52872312e-01 +3.73824239e-01 -1.35476977e-01 +1.97393909e-01 -7.56700803e-03 +1.09006979e-01 -5.32024324e-01 +4.10190463e-01 -5.78954294e-02 -3.94766003e-01 +4.53864515e-01 -5.32424510e-01 +4.99177158e-01 -2.91636378e-01 +2.65311599e-01 -2.49578983e-01 -4.76408333e-01 +2.91145504e-01 +2.71274094e-02 +1.42816797e-01 -4.43842858e-02 +2.69200444e-01 -4.49461676e-03 -2.10411131e-01 -3.16997677e-01 +4.64723676e-01 +5.09094477e-01 +4.95154560e-01 -2.27569029e-01 -3.73612136e-01 +4.78505075e-01 +2.17039585e-01 -9.08043236e-02 -5.06647788e-02 +3.81995559e-01 -4.55626905e-01 +4.32995886e-01 -3.70132357e-01 -4.81582850e-01 -2.95838773e-01 +1.34864626e-02 +4.66195673e-01 -1.50685862e-01 +7.66244158e-02 -3.66846859e-01 -1.92816272e-01 
#Parameter# /_8 {10} 161 ZERO_GRAD
+1.65324092e-01 +7.61802197e-02 +4.37623300e-02 +1.67008676e-02 +2.16378093e-01 -4.79477078e-01 +3.15558836e-02 -4.78743911e-01 -7.64787719e-02 +4.67328638e-01 
#Parameter# /_9 {10,3} 481 ZERO_GRAD
-5.91367722e-01 -5.50303422e-02 +2.93296874e-01 -4.35186803e-01 -2.63938844e-01 +1.54771179e-01 +2.58882474e-02 -6.05087519e-01 -2.00575918e-01 +4.09543812e-02 -1.51867956e-01 -3.67497146e-01 +6.67672813e-01 +7.41511822e-01 +1.56343535e-01 +1.02968943e+00 +5.60113490e-01 +1.20538759e+00 -1.01992249e+00 -3.42774123e-01 +9.08531070e-01 +9.27358195e-02 -1.80858028e+00 -3.50713491e-01 -7.74333179e-02 +3.09049021e-02 -3.88832122e-01 -9.50259566e-01 +1.22185314e+00 +4.89882916e-01 
#Parameter# /_10 {10,10} 1601 ZERO_GRAD
-4.11148429e-01 +1.20032206e-01 -7.68679474e-03 -1.96353599e-01 -1.00672412e+00 -1.33167908e-01 -4.10685211e-01 -3.39169949e-01 +5.48135996e-01 -1.22029029e-01 -2.16375470e-01 +7.55364180e-01 -7.01247295e-03 -4.42781031e-01 -7.22100496e-01 -5.22032142e-01 +5.67278028e-01 -4.93556768e-01 -2.35527754e-01 +6.43321633e-01 -2.37705648e-01 -3.99278641e-01 -1.57295689e-01 -5.68529248e-01 -5.38988173e-01 -4.55430329e-01 -9.11189392e-02 -4.77234535e-02 +3.97106595e-02 +6.00292645e-02 -4.70749795e-01 +5.35004735e-02 -4.64146361e-02 +2.82178760e-01 +8.04738581e-01 +1.07933199e+00 +7.06480086e-01 +5.67789227e-02 -7.94306457e-01 -1.24958336e+00 +5.53322613e-01 +3.45079079e-02 -6.77543402e-01 +1.17725098e+00 +1.54011333e+00 +4.98986840e-01 +1.07833922e+00 +4.56306249e-01 +8.60592186e-01 -3.01551819e-01 -5.33151567e-01 -6.76625848e-01 -4.37267810e-01 +5.70012212e-01 +3.19562292e+00 +4.89894241e-01 -2.53518581e-01 -4.88348871e-01 +2.12238133e-01 -1.30333126e+00 +3.94054800e-01 -1.19111896e+00 +7.34897196e-01 -1.85986519e-01 +1.02113485e+00 +1.46267796e+00 +1.38696536e-01 -1.29420444e-01 -4.08349305e-01 -6.47724211e-01 +2.45196939e-01 +4.84417342e-02 +6.56921804e-01 -1.53247654e-01 +4.26087886e-01 -2.53680050e-01 +1.11195111e+00 +2.96845555e-01 -3.10026240e-02 +2.17410833e-01 +5.92065036e-01 +2.44599596e-01 -7.60326803e-01 +5.64124107e-01 -6.69422686e-01 -5.99588215e-01 -4.67209935e-01 -3.55207175e-01 +8.23249042e-01 +3.41469161e-02 +3.96626711e-01 +8.76780629e-01 +4.00710821e-01 +2.52886295e-01 -9.16870296e-01 -1.50967133e+00 -2.35463828e-01 -6.47423327e-01 -1.84227496e-01 +9.75455403e-01 
#Parameter# /_11 {10} 161 ZERO_GRAD
+1.39586955e-01 +4.62932199e-01 -1.76840499e-01 +2.02807754e-01 +3.31355929e-01 -1.47133276e-01 +3.46921086e-01 +3.07485163e-01 +2.28084147e-01 -1.03533283e-01 
#Parameter# /_12 {10} 161 ZERO_GRAD
+3.88775647e-01 +5.74831143e-02 -9.93798375e-01 +2.64461517e-01 +7.57496595e-01 +9.91068423e-01 -4.38845992e-01 -7.23447323e-01 +9.26096499e-01 +8.56774569e-01 
#LookupParameter# /_0 {3,3} 145 ZERO_GRAD
+3.85482579e-01 -1.22198677e+00 +3.21427196e-01 +2.97602952e-01 +6.90493107e-01 -1.28129983e+00 -7.39912510e-01 -1.19999290e-01 -6.88161492e-01 
