#Parameter# /_1 {4,10} 641 ZERO_GRAD
-1.18071878e+00 +6.66614056e-01 -2.20279396e-02 -5.50082505e-01 +1.09294735e-01 -3.64283204e-01 -5.32749224e+00 +1.56083155e+00 +8.46427798e-01 +2.20978837e-02 -3.09111595e+00 +5.95691681e-01 +1.26130676e+00 -2.55928129e-01 -2.73416013e-01 -1.11273766e+00 -7.71502912e-01 +1.82477489e-01 +1.68480372e+00 +2.63276368e-01 -6.51876390e-01 -1.68914783e+00 +6.72420025e+00 +1.63006723e+00 +7.60229051e-01 +2.19397807e+00 -8.81778240e+00 -1.07884014e+00 +9.04578328e-01 -8.42091680e-01 -4.65128183e+00 -1.61042020e-01 -3.31786335e-01 +1.08861887e+00 +2.21341205e+00 -5.12992382e+00 -1.09139371e+00 +1.92686701e+00 -1.91947031e+00 -5.46265244e-01 
#Parameter# /_2 {4} 65 ZERO_GRAD
+4.25365478e-01 +1.15650547e+00 -3.02085280e+00 +3.63181010e-02 
#Parameter# /_3 {10,3} 481 ZERO_GRAD
-9.00719583e-01 +1.15667872e-01 -1.49839595e-01 +2.56147813e-02 -4.83265489e-01 -6.86691999e-01 +1.54334116e+00 -1.50564700e-01 +1.25831032e+00 -8.39952588e-01 +3.21063787e-01 -4.49761063e-01 +7.88643718e-01 -7.88119197e-01 +1.63591757e-01 +1.09410986e-01 -3.48730505e-01 -1.47848949e-01 -2.02060032e+00 +1.06035066e+00 -4.11850065e-01 -2.61266455e-02 +6.41277358e-02 -1.58430129e-01 +1.30293131e+00 -6.27648175e-01 -4.85609204e-01 -4.05896187e-01 +1.10993378e-01 -1.33694041e+00 
#Parameter# /_4 {10,10} 1601 ZERO_GRAD
-3.67736697e-01 -3.14273953e-01 +6.00652516e-01 +8.79987180e-02 +1.99322611e-01 -1.34054375e+00 -6.04317844e-01 +4.62602735e-01 +3.91804695e-01 +8.48584399e-02 -1.53205425e-01 +4.47003156e-01 -6.25997007e-01 -6.91016793e-01 -4.42768335e-01 -5.17510951e-01 +5.73856652e-01 -1.59265113e+00 +4.15118009e-01 +1.75361216e+00 -1.29821646e+00 +1.20834880e-01 -1.33825034e-01 -4.04912680e-01 -4.52740312e-01 -4.35084522e-01 +3.79447758e-01 -9.51092005e-01 -2.89607376e-01 +5.61726213e-01 +7.76839554e-01 +7.19754040e-01 +4.76035103e-02 -1.81175843e-01 -1.20420352e-01 +4.24629480e-01 +1.11515844e+00 +3.93692181e-02 -5.69670022e-01 +1.14033423e-01 -4.91939604e-01 -5.18720567e-01 -8.30625117e-01 +8.19125056e-01 +7.49452770e-01 +1.51858807e+00 +4.72277731e-01 +1.37486231e+00 +3.17181319e-01 -6.40576482e-01 +2.39747930e-02 -6.02466106e-01 -3.83926272e-01 -2.69021899e-01 +1.13522641e-01 +5.53277731e-01 -5.96983850e-01 +6.88497126e-01 -2.76974797e-01 +4.64591198e-02 -1.77071199e-01 +5.42734087e-01 +3.49235654e-01 +9.35629368e-01 +1.00259520e-01 +1.86477110e-01 -3.61685693e-01 +4.19782817e-01 +1.58270299e+00 -8.66443038e-01 -1.56845361e-01 +3.22283536e-01 +9.92125645e-02 -1.30002236e+00 -1.00648546e+00 +1.66089669e-01 +1.30441487e-01 -1.24114215e-01 -9.46902037e-01 +1.04225302e+00 +2.88094521e-01 +7.22753108e-01 +1.03633034e+00 -1.63442194e-01 -9.45346653e-02 -3.12389553e-01 -7.96564877e-01 +9.41214740e-01 +6.26019478e-01 -5.79062760e-01 -4.05609012e-01 +3.07679027e-01 -6.89393952e-02 +1.26136291e+00 -2.40063772e-01 -5.38318574e-01 -9.39843893e-01 +6.77529812e-01 +6.45251870e-01 -1.35195836e-01 
#Parameter# /_5 {10} 161 ZERO_GRAD
+3.58418018e-01 +3.52403447e-02 +9.35766280e-01 -2.25949839e-01 +7.28861868e-01 -7.14611769e-01 -4.48426679e-02 -2.76450276e-01 -7.25325584e-01 -1.82913959e-01 
#Parameter# /_6 {10,3} 481 ZERO_GRAD
-5.93732178e-01 +5.71949184e-01 -2.35445127e-01 +6.41780257e-01 -5.21369576e-01 +2.83442345e-02 +5.89004278e-01 +2.22124755e-01 +3.71360123e-01 -6.22438371e-01 +3.97938102e-01 +2.02588320e-01 +5.74800253e-01 +8.07504430e-02 +4.60267216e-01 -6.33779228e-01 +4.92517054e-01 +4.08934832e-01 +5.50464451e-01 -4.84694988e-01 +2.37177283e-01 +3.78654838e-01 -2.61944771e-01 +1.18927523e-01 +2.16681063e-01 +4.84674603e-01 +1.80135459e-01 +2.03885809e-01 +4.86580223e-01 -5.74595034e-02 
#Parameter# /_7 {10,10} 1601 ZERO_GRAD
+7.96715319e-02 +1.78801417e-01 +2.93621153e-01 +2.68045980e-02 -8.34558904e-02 +4.94557977e-01 +3.05458963e-01 +1.13439374e-01 +4.20358300e-01 -2.85384089e-01 -4.14543629e-01 +5.33841923e-02 +2.01252759e-01 -3.52484107e-01 -4.94031131e-01 +1.66092664e-01 -3.18141840e-02 +1.22524779e-02 -5.17528474e-01 +3.74820232e-01 -2.45244466e-02 -1.76460259e-02 -1.22003056e-01 +8.75187218e-02 +1.89464062e-01 -3.85466456e-01 -4.32677478e-01 -3.95473868e-01 +2.76417345e-01 +2.35932618e-01 +3.52074414e-01 -4.21967149e-01 -1.25750348e-01 -1.44848078e-01 +5.93978651e-02 +1.78872660e-01 +3.94714959e-02 +4.22472119e-01 +2.04778418e-01 +3.52772206e-01 -4.68955815e-01 -3.79588045e-02 +6.60649985e-02 +3.59329522e-01 +4.38560784e-01 +2.12757960e-01 +1.20595686e-01 -3.35012347e-01 +8.40945914e-02 -4.46185857e-01 -3.41273427e-01 -3.47853482e-01 +1.54496983e-01 -1.80804953e-01 -2.22097129e-01 +1.02790833e-01 +3.51884156e-01 +4.79511887e-01 -3.65843922e-01 -3.58834141e-03 +2.32507572e-01 +5.38585842e-01 +2.58187175e-01 -2.16681734e-01 +2.96070576e-01 -3.05924028e-01 +4.53842163e-01 +4.71122861e-02 -1.46562144e-01 -1.91955999e-01 +4.95217949e-01 +2.79574752e-01 -4.23418075e-01 -2.32424363e-01 +4.56986308e-01 -1.24160454e-01 +4.59547400e-01 +2.64712483e-01 -4.05562185e-02 +3.57815951e-01 +3.31293613e-01 -4.80093390e-01 -2.23159548e-02 +2.20479906e-01 +9.48048979e-02 -6.22855760e-02 -4.08791214e-01 +1.90464497e-01 -9.44390595e-02 -4.04523253e-01 +4.83054340e-01 +4.48360711e-01 -4.51619089e-01 -4.37945455e-01 -3.54848742e-01 -1.39286086e-01 +4.57578272e-01 +4.65209454e-01 -5.88421859e-02 +1.94929004e-01 
#Parameter# /_8 {10} 161 ZERO_GRAD
-5.20985946e-02 -5.34249358e-02 +1.10098101e-01 +3.29481602e-01 +2.41861403e-01 +3.97249132e-01 +3.75677228e-01 +1.59321070e-01 +2.36794040e-01 +6.48129284e-02 
#Parameter# /_9 {10,3} 481 ZERO_GRAD
+1.39766395e+00 -1.14643566e-01 -5.97154796e-01 -4.27675061e-02 +6.75346136e-01 -1.34044498e-01 +3.83063763e-01 -1.13806248e+00 -2.48216182e-01 +1.15607536e+00 -4.18356538e-01 +5.94464540e-01 +5.61626256e-01 +3.83427113e-01 -5.31938970e-01 +1.40080795e-01 -2.96241969e-01 +1.30990878e-01 -1.57919511e-01 -9.09436166e-01 -4.49428968e-02 -7.04762191e-02 +2.15775460e-01 -6.86771393e-01 -1.36802584e-01 +8.88830185e-01 -5.78308702e-01 -5.43395638e-01 -7.31547654e-01 -2.62518451e-02 
#Parameter# /_10 {10,10} 1601 ZERO_GRAD
+2.21573845e-01 -4.70857203e-01 -7.57790089e-01 -2.38755107e-01 -6.01312876e-01 +2.21937865e-01 +1.28276512e-01 -2.92441081e-02 +7.32901335e-01 +3.58214557e-01 -2.86670268e-01 +1.26775646e+00 +3.01537782e-01 -6.71008825e-02 -2.86376536e-01 +5.90816677e-01 -1.31645873e-01 -2.10267261e-01 -8.39753389e-01 -8.33710849e-01 -1.16743959e-01 +6.96021557e-01 +8.32716286e-01 -9.73984480e-01 +5.78574717e-01 -3.42949867e-01 +6.02097631e-01 +1.50413382e+00 -1.82622993e+00 +6.97449923e-01 -5.32636821e-01 -8.98456514e-01 +6.94696963e-01 +2.93279707e-01 -3.49184990e-01 -1.17779148e+00 +1.05855811e+00 -5.39206028e-01 +1.06456971e+00 -1.51929840e-01 -7.67286837e-01 +3.95180881e-01 -1.02645211e-01 +4.14272249e-01 +9.48012233e-01 -1.32227743e+00 +7.58743286e-01 +1.56534776e-01 -8.86807442e-01 -2.96025816e-02 +4.20423120e-01 +3.87636811e-01 +3.59415561e-01 +2.34488457e-01 +3.91615272e-01 +1.36487889e+00 -1.15144086e+00 -2.83492655e-01 -7.29583025e-01 -6.19508624e-01 -3.24802101e-01 -2.94062287e-01 -5.45147479e-01 +8.58300507e-01 +3.97866368e-01 -1.13256419e+00 +9.72252071e-01 +6.26746356e-01 +1.70720190e-01 +4.18797582e-01 +7.85043091e-02 +5.09790897e-01 +1.50872678e-01 -2.98360605e-02 +6.38613403e-01 -5.35316229e-01 +6.43914402e-01 +2.41957188e-01 -3.69047552e-01 +8.57353136e-02 -2.07699109e-02 -1.79502022e+00 +6.16775870e-01 +5.49367845e-01 -3.15792710e-01 +2.60302901e-01 -2.34034941e-01 -6.44068480e-01 +1.22017419e+00 -3.47638465e-02 +4.98741060e-01 +2.06784412e-01 -1.50454819e+00 -3.75128776e-01 +2.69858629e-01 +2.75227819e-02 -3.52335364e-01 -1.44549161e-01 -2.18789145e-01 -1.39565319e-01 
#Parameter# /_11 {10} 161 ZERO_GRAD
+1.75790876e-01 -2.85850644e-01 +3.31393689e-01 -2.98197940e-02 -4.05663937e-01 -4.46832836e-01 +3.41915846e-01 -2.55085267e-02 +3.50889303e-02 -2.72489637e-01 
#Parameter# /_12 {10} 161 ZERO_GRAD
-1.90490767e-01 +6.48456872e-01 +2.35025510e-01 +9.93584037e-01 -9.94040728e-01 -6.47347212e-01 -9.27747607e-01 +9.94832516e-01 -2.48047411e-01 -3.80868465e-01 
#LookupParameter# /_0 {3,4} 193 ZERO_GRAD
-7.45855451e-01 +7.50240564e-01 -1.58677816e+00 +9.64017093e-01 -4.78135347e-01 +7.46690035e-01 -1.35492539e+00 +1.36534464e+00 +1.06410658e+00 +8.19861889e-02 -4.36858118e-01 -5.94024539e-01 
