#Parameter# /_1 {3,10} 481 ZERO_GRAD
+2.14667344e+00 -4.59509134e-01 -5.44080026e-02 +3.04426346e-03 -1.69574976e+00 -1.38110980e-01 +5.51999435e-02 -2.37314963e+00 +1.12326088e+01 +1.13898015e+00 -3.47296506e-01 -6.16415024e-01 +5.80167651e-01 -1.03943384e+00 -2.24163699e+00 +2.47334868e-01 -4.39006954e-01 +1.76392102e+00 -7.38187253e-01 +8.43112648e-01 +2.34044695e+00 +5.37451088e-01 -2.15509728e-01 -7.13097572e-01 -7.95725107e-01 +1.42928469e+00 +3.97799283e-01 -5.35982966e-01 +5.63701577e-02 +3.31692672e+00 
#Parameter# /_2 {3} 49 ZERO_GRAD
+9.17127490e-01 +8.43130827e-01 -1.00436246e+00 
#Parameter# /_3 {10,3} 481 ZERO_GRAD
+9.68450248e-01 -6.65359855e-01 -2.07358152e-01 +6.91182435e-01 -1.44656181e+00 -2.76184827e-01 -9.68426883e-01 +4.86924738e-01 -8.03432941e-01 -9.29097831e-01 +8.49260211e-01 +3.22508842e-01 -9.07785833e-01 -3.07304263e-01 -1.35006380e+00 +6.69805929e-02 -1.54161215e+00 +7.37285197e-01 -6.32092714e-01 -1.10228315e-01 -1.57184720e-01 +5.70069365e-02 -1.94038069e+00 -4.64984149e-01 -2.81003785e+00 -8.45495403e-01 -2.64308238e+00 -2.43124715e-03 -9.77468073e-01 -8.42797756e-01 
#Parameter# /_4 {10,10} 1601 ZERO_GRAD
-8.25212121e-01 +4.16265011e+00 -1.93246233e+00 +2.10787371e-01 -1.28463173e+00 -6.91443145e-01 -3.57212812e-01 -3.53379697e-01 -1.00070131e+00 -5.02817810e-01 -6.63654625e-01 +1.26611724e-01 +7.36620307e-01 +1.66958198e-01 +1.78054917e+00 -3.99478734e-01 +1.68878686e+00 -1.13143861e+00 +9.27551985e-01 +4.62695472e-02 +5.42760670e-01 +9.48532939e-01 -6.38288677e-01 -1.44549298e+00 -6.25221729e-01 -4.97141093e-01 -6.34521902e-01 +4.21030462e-01 -1.09672499e+00 -1.51041710e+00 -4.13168110e-02 +5.39573669e-01 +1.15172851e+00 +2.09168360e-01 +1.58125901e+00 -3.84152949e-01 +1.25084651e+00 -2.08170742e-01 +1.22161281e+00 -3.33923697e-01 +2.77966052e-01 -3.68317544e-01 +1.85046470e+00 +3.25220883e-01 +2.39406419e+00 -6.33391082e-01 +2.38885427e+00 -7.32809663e-01 +9.22702312e-01 +6.26383722e-01 +8.65679309e-02 +8.59179735e-01 -1.13582468e+00 -7.44218647e-01 -3.86478566e-03 -4.35548791e-05 +3.63688432e-02 -1.84630468e-01 -9.68568504e-01 -1.32661986e+00 +5.23860812e-01 -2.28304639e-01 -8.04469585e-01 -7.95942903e-01 -1.26068819e+00 -4.31724966e-01 -1.62928951e+00 +5.40814281e-01 -8.39947820e-01 -6.81768239e-01 +1.30812752e+00 -1.22617936e+00 -2.99122274e-01 -2.48327598e-01 +2.86747068e-01 +4.52460289e-01 +1.41229963e+00 -3.88771832e-01 +9.68184471e-01 +5.18552959e-01 +1.08435929e+00 -6.58622682e-01 -5.68845533e-02 +2.03841984e-01 -1.12987185e+00 +3.17383036e-02 -1.19989038e+00 +1.16558266e+00 -5.56468189e-01 +1.12512752e-01 +1.04792833e-01 -1.60476297e-01 -1.01366663e+00 -3.52434784e-01 -1.31236053e+00 +2.59805918e-01 -1.43161023e+00 +6.23309970e-01 -6.18890405e-01 +2.99350053e-01 
#Parameter# /_5 {10} 161 ZERO_GRAD
-8.27099025e-01 -7.91819870e-01 +2.31788588e+00 +1.22157186e-01 +1.60516369e+00 -3.23479980e-01 +2.13009787e+00 -7.13072896e-01 +1.38930821e+00 +9.74824131e-01 
#Parameter# /_6 {10,3} 481 ZERO_GRAD
-1.41157657e-01 -4.70468342e-01 -1.39781964e+00 +3.44569951e-01 -1.70571709e+00 -1.17827199e-01 -1.73845720e+00 -3.92944589e-02 +7.57789075e-01 -1.43308687e+00 +3.20450097e-01 -4.84148473e-01 -3.37244749e-01 +1.03704572e+00 -1.54163206e+00 -6.20250702e-01 -1.88152611e+00 -2.39891618e-01 +4.26163107e-01 -8.77043664e-01 -1.15083361e+00 -4.11991298e-01 -2.26794863e+00 +5.93851328e-01 +1.39325213e+00 +9.02600363e-02 -1.08338153e+00 -1.13929808e+00 +3.81677240e-01 -1.47142172e+00 
#Parameter# /_7 {10,10} 1601 ZERO_GRAD
-1.81302118e+00 +2.30779862e+00 -1.06008041e+00 -2.99636394e-01 +1.36750329e+00 -5.53077087e-02 -1.79288447e+00 +2.30075836e+00 -2.89649427e-01 -3.56612682e+00 +8.87634754e-01 -2.91412622e-01 +1.06326854e+00 -6.70050144e-01 +2.05656007e-01 -1.51585054e+00 +1.27504647e+00 +1.58453867e-01 -3.51338029e-01 -1.18901384e+00 -9.53035414e-01 -5.57591200e-01 -1.38250113e+00 +1.07538152e+00 +6.13817632e-01 -2.69635797e+00 -2.31627807e-01 -8.24132204e-01 +7.09983706e-01 -4.68006086e+00 +6.06389284e-01 +1.90611035e-01 -1.21383980e-01 -1.56664097e+00 -3.41871202e-01 -7.44043216e-02 -8.32816899e-01 +1.19509421e-01 -1.09979725e+00 -1.51996386e+00 +4.33667660e-01 +4.66547549e-01 +3.08419776e+00 -1.03124785e+00 +2.97708780e-01 +2.44116262e-01 -4.18760955e-01 +8.70002449e-01 -1.16342509e+00 +1.64786005e+00 -6.90101027e-01 +2.72017042e-03 -1.33391976e+00 +1.48214167e-02 +5.19068897e-01 -9.26518261e-01 +2.68950403e-01 -1.22370586e-01 +3.23383838e-01 -4.37165833e+00 -4.05549228e-01 -1.01963326e-01 -1.67649913e+00 +7.09882200e-01 +4.88595635e-01 +1.82252795e-01 +1.02346933e+00 -4.03772891e-01 +1.53786623e+00 -6.74199164e-01 +2.14686751e+00 -6.78152740e-01 -2.50657499e-01 -2.04382610e+00 +1.79196334e+00 +3.32159072e-01 -1.32324979e-01 +5.26060641e-01 -1.42934358e+00 -1.75735354e+00 -2.42418632e-01 +1.80516347e-01 -1.10440366e-01 +6.42282307e-01 -4.44555104e-01 -1.67117998e-01 +7.84248710e-01 -1.73810303e-01 +1.69757140e+00 +7.22728729e-01 -7.29215562e-01 +1.59915328e-01 -1.86530638e+00 +6.44745290e-01 +4.06285107e-01 -2.89290476e+00 -2.32033268e-01 -2.87632108e-01 +1.69426405e+00 -1.40141964e+00 
#Parameter# /_8 {10} 161 ZERO_GRAD
+1.24376357e+00 +2.12767795e-01 +2.21967459e+00 -8.84414613e-02 +7.27953911e-01 +3.55082192e-02 +1.06383073e+00 +4.03992951e-01 -6.62474036e-01 +8.16732347e-01 
#Parameter# /_9 {10,3} 481 ZERO_GRAD
+1.07697511e+00 +7.53589213e-01 -1.85202509e-01 +1.58449873e-01 -1.45016313e+00 +9.01060700e-01 -6.96287274e-01 -6.77635819e-02 -2.88195193e-01 -5.05483687e-01 +1.12422860e+00 +9.12077606e-01 +3.93550068e-01 -6.96786940e-01 -9.57148015e-01 +1.17256045e-01 -1.69159341e+00 -3.18837583e-01 -6.04188740e-01 +8.07740912e-02 -1.08847654e+00 +1.13421011e+00 -1.98996937e+00 -1.24896049e+00 -1.99411356e+00 -7.81434000e-01 -2.46830034e+00 -5.99046767e-01 -8.05584192e-01 -6.89691901e-01 
#Parameter# /_10 {10,10} 1601 ZERO_GRAD
-2.59141374e+00 -1.91551015e-01 -1.55297831e-01 -1.77078414e+00 -1.15336871e+00 -1.20221817e+00 -1.95194411e+00 -2.57018256e+00 +6.67942941e-01 -2.01773047e+00 -1.53764129e-01 -1.18765938e+00 -2.35992566e-01 +1.30998224e-01 +1.44118857e+00 -5.12361526e-01 +7.69456148e-01 +3.96625027e-02 +4.81086582e-01 -8.57515097e-01 -7.04210162e-01 +4.36457336e-01 -3.71840328e-01 -6.13996685e-01 -7.58073986e-01 -1.62092984e-01 -1.16378319e+00 -7.97115624e-01 -1.74414980e+00 -3.84442180e-01 -2.07361147e-01 -1.05834031e+00 +2.16567963e-02 +3.02231163e-01 +1.06338370e+00 -3.61449897e-01 +8.68574262e-01 -5.92377841e-01 +3.91122639e-01 -3.77544202e-02 +5.45282662e-01 -5.85940361e-01 +9.00433958e-01 +3.06631088e-01 +1.89246190e+00 +2.78998017e-01 +9.23785567e-01 -3.97399962e-01 +5.51040649e-01 +3.36747229e-01 -1.35784602e+00 +4.00952935e-01 -1.55459738e+00 -1.08850908e+00 -5.52965939e-01 -5.27491942e-02 -4.87512797e-01 -2.69604117e-01 -3.93609971e-01 -1.54217958e+00 -1.39528632e-01 +8.96750093e-01 -5.00732601e-01 -3.52624893e-01 -6.50927782e-01 +3.27675909e-01 -1.05633664e+00 +2.43195266e-01 -2.62502015e-01 -3.84671777e-01 +2.83427030e-01 -1.52432716e+00 -5.15149593e-01 -6.51206315e-01 -9.14231464e-02 +1.41638875e+00 +8.51785362e-01 -2.17266992e-01 +4.89974886e-01 -1.67619169e+00 +8.57917815e-02 +2.56735682e-01 +5.52562065e-02 +4.40852851e-01 -1.12505150e+00 -9.05323625e-02 -4.39641088e-01 +6.49477243e-01 -8.78083527e-01 +7.38249719e-01 -2.68469125e-01 +1.10378182e+00 -7.25881815e-01 -2.66884714e-02 -5.49721718e-01 -4.86563057e-01 -1.07810819e+00 -8.18097442e-02 -6.45392776e-01 -2.87401676e-01 
#Parameter# /_11 {10} 161 ZERO_GRAD
+1.20594427e-01 +8.63743350e-02 +1.22421825e+00 +9.51477408e-01 +1.18133903e+00 +6.32372320e-01 +2.02655339e+00 -7.15579093e-02 +8.80541682e-01 +1.47115976e-01 
#Parameter# /_12 {10,3} 481 ZERO_GRAD
+6.44029737e-01 -1.53200376e+00 +4.92648304e-01 -1.52912199e+00 -2.54637527e+00 +2.84070432e-01 +2.23073459e+00 -6.70335352e-01 +2.01015091e+00 +6.27186537e-01 -2.37922668e-01 -5.94932318e-01 +1.64902341e+00 -1.84183216e+00 -2.03711247e+00 +1.67752773e-01 +2.37295270e+00 -9.82113834e-03 +2.35283494e+00 +5.78270853e-01 +7.91202188e-01 -7.45518446e-01 +2.43357047e-01 -2.59834230e-01 +2.11702347e+00 -2.56411612e-01 -8.62635970e-01 +6.53142631e-01 +3.43434960e-01 -1.66363269e-01 
#Parameter# /_13 {10,10} 1601 ZERO_GRAD
+8.99923779e-03 +1.13189554e+00 -9.42533791e-01 -5.50016046e-01 +5.51515222e-02 +1.00650772e-01 -7.57335842e-01 -6.29981041e-01 +2.40904018e-01 +1.33935010e+00 -1.15979008e-01 +1.12731755e+00 -6.41081631e-01 +1.08873773e+00 +1.13199401e+00 -5.40788949e-01 -4.45932984e-01 -2.12636396e-01 -9.15249407e-01 -1.14406133e+00 +1.17097306e+00 +3.19182873e-02 +7.48299599e-01 -7.42300153e-01 -1.99440539e-01 +1.87245035e+00 +1.82450786e-01 -3.52290541e-01 +1.19669104e+00 +7.77778387e-01 -1.04897606e+00 +1.07704687e+00 -9.58048046e-01 +2.47900069e-01 +4.93171781e-01 -9.75672841e-01 -1.11479139e+00 +8.96439135e-01 -1.57335877e+00 -1.33747447e+00 -1.36266440e-01 +6.02703571e-01 -1.72397792e+00 +7.25933850e-01 +8.46866071e-01 -2.93213129e-01 -7.28052437e-01 +8.29368472e-01 -1.33271301e+00 -1.24494183e+00 +9.94846404e-01 -4.66217309e-01 +9.11544859e-01 -6.14869356e-01 -1.07887767e-01 +5.15162110e-01 -3.28476310e-01 -1.08813584e+00 +6.12629056e-01 +1.75903082e+00 +3.35047722e-01 -4.63420123e-01 +9.27951217e-01 -1.29518795e+00 -1.13208771e+00 +6.42037749e-01 +6.45907402e-01 -2.75268346e-01 +1.04777920e+00 +8.70027900e-01 -2.09848118e+00 -3.14534396e-01 -5.00021076e+00 +3.09124291e-01 +5.43619156e-01 -4.36696947e-01 -3.50555241e-01 +7.33522058e-01 -7.79625297e-01 -3.74227619e+00 +6.37128115e-01 -9.03392732e-01 +8.19316745e-01 -1.12540007e+00 -1.46060526e+00 -4.41377833e-02 +7.41100550e-01 -5.44557035e-01 +9.41800833e-01 +5.55275261e-01 +5.38984299e-01 -4.15593833e-01 +1.05438304e+00 -7.84889102e-01 -2.21892804e-01 +8.29972076e+00 +3.44780624e-01 -1.12722778e+00 +4.08533037e-01 +1.51037085e+00 
#Parameter# /_14 {10} 161 ZERO_GRAD
-1.12119508e+00 +8.24105918e-01 -7.92947829e-01 +1.22087491e+00 +1.14833939e+00 -6.05026603e-01 -1.28103447e+00 +5.89511171e-03 -1.08445668e+00 -2.63376474e-01 
#Parameter# /_15 {10} 161 ZERO_GRAD
+2.27455616e-01 +9.93435621e-01 +4.08167243e-01 +9.15401995e-01 +5.43980896e-01 +9.16750848e-01 -4.65340197e-01 +5.48050344e-01 -9.91931915e-01 -6.03676617e-01 
#Parameter# /_16 {10} 161 ZERO_GRAD
+6.70402348e-01 +2.44790626e+00 +5.69220960e-01 +1.22322714e+00 +1.47466588e+00 -8.91176909e-02 -1.62417245e+00 -3.85835439e-01 -9.00964320e-01 +6.28733113e-02 
#LookupParameter# /_0 {3,3} 145 ZERO_GRAD
-1.02492654e+00 -8.05822074e-01 -3.02854300e-01 +5.98094130e+00 +5.81225300e+00 -1.53191376e+01 -8.23561013e-01 +5.80873847e-01 -6.47127032e-01 
