#Parameter# /_1 {4,10} 641 ZERO_GRAD
+7.50732124e-01 -3.77298641e+00 +1.11272621e+01 +1.17206216e+00 -9.97543037e-01 +1.13977818e-02 +2.18696856e+00 +7.57888794e-01 -1.27672005e+00 +1.29310107e+00 +1.66673648e+00 -2.05657840e-01 -3.66723746e-01 -5.48891973e+00 -7.23144341e+00 +3.37597895e+00 +1.05829370e+00 +1.53719974e+00 +1.57912517e+00 -2.54439855e+00 -6.39179289e-01 -1.79446650e+00 +1.25416536e+01 +5.08309841e-01 -1.13841438e+00 +2.18332857e-01 +5.31001043e+00 +6.10257506e-01 -3.65021199e-01 -7.51806557e-01 +4.02144134e-01 +9.97776270e-01 -7.42066145e-01 -1.34543860e+00 +2.12547708e+00 +2.05109620e+00 +9.39018846e-01 -9.41396773e-01 -1.38162410e+00 -6.54347301e-01 
#Parameter# /_2 {4} 65 ZERO_GRAD
-4.64245170e-01 +4.22063887e-01 -4.90694475e+00 +4.22875769e-02 
#Parameter# /_3 {10,3} 481 ZERO_GRAD
+8.71493146e-02 -2.49008775e-01 -2.69683152e-01 +4.46850091e-01 +6.47143602e-01 -1.87775508e-01 -1.03091359e+00 +6.53724223e-02 -1.68994486e+00 +4.39165205e-01 +1.72824383e+00 +4.46185499e-01 -7.39056319e-02 +6.91171944e-01 -1.12005746e+00 -1.46517897e+00 -3.18456590e-01 +2.87476778e-01 +1.29807436e+00 -7.61630476e-01 -6.08074546e-01 -5.31044781e-01 +8.74318659e-01 -1.95488751e+00 -2.50295937e-01 +4.55438375e-01 -7.63248131e-02 +3.76745075e-01 +1.23595941e+00 +2.94396430e-01 
#Parameter# /_4 {10,10} 1601 ZERO_GRAD
-1.48159158e+00 -1.64335612e-02 -7.62710214e-01 -4.30881768e-01 -1.79521143e-01 -7.51318455e-01 +1.94042027e-01 +4.34260815e-01 -3.97664368e-01 +6.90927267e-01 +2.71498770e-01 -1.52886629e-01 -1.20152473e+00 +9.85035121e-01 +3.94381166e-01 -1.38725758e-01 +1.82385057e-01 +3.29583347e-01 -6.36654556e-01 -5.66334605e-01 +1.05116975e+00 +2.58716643e-01 -2.46665627e-01 +1.89118755e+00 +4.87746090e-01 +6.58695161e-01 -4.90340650e-01 +6.04168832e-01 -3.94008130e-01 -2.67533809e-01 -6.04769039e+00 -5.88200510e-01 +1.60244942e-01 +1.21501043e-01 -3.22790176e-01 -7.90024698e-01 -1.64571798e+00 -8.56829464e-01 -1.17430604e+00 -7.63991416e-01 -5.58016039e-02 +5.23763061e-01 +5.20598650e-01 -9.55978155e-01 +1.72488820e-02 +1.94782138e+00 +4.14951503e-01 -6.07062178e-03 +1.60311270e+00 +2.52750199e-02 -4.12333980e-02 -7.44600713e-01 -1.94551575e+00 +1.81995869e-01 -7.63125300e-01 -9.61692810e-01 -8.65170538e-01 +9.96023655e-01 -3.78545284e-01 -8.07291746e-01 -4.31871206e-01 +6.85691535e-01 -6.79279625e-01 +6.41778588e-01 +3.15177321e-01 +9.30342495e-01 -2.80485302e-01 -2.70076424e-01 -8.14197659e-01 -3.77513975e-01 +2.07949668e-01 +3.87369126e-01 -1.53167236e+00 +5.05122691e-02 +7.35532641e-01 +7.08357275e-01 -4.59441692e-01 +3.81185651e-01 +1.32979488e+00 +6.65821433e-01 -3.66322130e-01 -5.64085722e-01 -1.34405124e+00 -1.02275658e+00 +4.43927377e-01 -1.83567852e-01 -1.92937195e+00 +3.10865700e-01 -1.82984436e+00 -1.64427370e-01 -3.11699361e-01 +6.17463470e-01 +9.25929129e-01 -7.59153664e-01 +5.50739169e-01 +4.70501721e-01 +8.67058992e-01 -3.00723046e-01 +9.73620951e-01 +1.88581780e-01 
#Parameter# /_5 {10} 161 ZERO_GRAD
-6.95221499e-02 +5.72495520e-01 +8.98323715e-01 +2.31406212e-01 -1.77942142e-01 +2.69531548e-01 +1.07520580e+00 -5.10476053e-01 +1.00972879e+00 -2.22776473e-01 
#Parameter# /_6 {10,3} 481 ZERO_GRAD
-2.16545224e-01 +1.41408741e-01 -1.98251933e-01 +9.54806149e-01 -1.09090181e-02 -1.44035685e+00 +7.51735866e-02 +2.45143205e-01 -7.48104006e-02 +2.98535794e-01 -9.55252573e-02 -1.53943062e+00 -9.57822382e-01 +1.12633249e-02 +2.77015790e-02 +8.13104630e-01 -9.06674385e-01 -2.27106914e-01 -1.15327907e+00 +8.04772303e-02 -1.27693534e-01 +8.01147878e-01 +1.09950936e+00 -1.62553334e+00 +7.09715903e-01 +1.38885868e+00 +8.06717992e-01 +1.67879581e-01 +5.76476574e-01 +1.08440447e+00 
#Parameter# /_7 {10,10} 1601 ZERO_GRAD
-5.89127205e-02 +3.58271524e-02 -4.53604907e-01 -1.41991687e+00 -4.81854558e-01 -3.52527320e-01 +3.53697628e-01 +5.00868857e-01 +5.78480244e-01 +2.84710407e-01 -6.53414786e-01 -2.84752041e-01 +1.04723364e-01 +1.80735826e+00 +9.21211615e-02 +1.48318008e-01 -4.03824449e-01 +1.18169887e-02 -3.12962532e-01 -3.84863526e-01 -1.74276710e-01 -4.79850590e-01 +4.33222920e-01 +1.63295245e+00 +9.28960204e-01 +5.92160881e-01 +1.58693388e-01 -6.77412033e-01 -5.31600952e-01 -6.20096684e-01 +2.51925647e-01 -1.23445570e+00 -2.38850737e+00 -2.07305264e+00 -1.89633346e+00 -1.61121750e+00 -8.50152194e-01 +8.38413715e-01 -1.21751118e+00 -2.62673378e-01 +2.64292341e-02 -1.46275565e-01 -1.27782524e-01 +7.29177415e-01 +3.57026517e-01 +1.10565746e+00 -6.99495614e-01 +1.24098256e-01 +1.66194975e-01 -5.43574274e-01 -1.33762312e+00 +3.54974389e-01 +3.61108750e-01 -3.01729232e-01 -8.02848399e-01 -1.17361331e+00 +2.45346829e-01 +3.06508571e-01 -4.91605371e-01 -6.98502958e-01 -1.61170423e+00 -5.29282331e-01 -7.22129345e-02 +2.27775288e+00 +7.79320240e-01 +1.81433648e-01 +3.04110497e-01 +7.39799961e-02 +9.25248936e-02 +3.47969443e-01 -7.86521673e-01 -4.77956682e-01 +5.21343172e-01 +2.73890424e+00 +2.11739516e+00 +1.99046612e+00 +3.22697335e-03 +6.28852427e-01 -3.11532855e-01 +8.03544879e-01 -1.46511029e-02 +3.92625332e-02 -5.53373516e-01 -1.44964933e+00 -6.49414897e-01 -1.57632184e+00 +1.95693746e-01 -1.02569509e+00 -2.49349147e-01 -4.41893905e-01 +3.74688864e-01 +1.08458064e-01 -4.01040375e-01 +7.85507262e-01 +1.14570260e+00 +1.58769262e+00 -4.09283161e-01 +1.24680865e+00 +5.20425737e-01 +2.42268324e-01 
#Parameter# /_8 {10} 161 ZERO_GRAD
-6.57844543e-02 -2.76914537e-01 +3.11873108e-01 +1.36091769e+00 +6.42874897e-01 +7.71104038e-01 -2.13493600e-01 +7.52056599e-01 +9.00120795e-01 +1.80441439e-01 
#Parameter# /_9 {10,3} 481 ZERO_GRAD
-5.54825306e-01 -6.23164117e-01 +8.64915252e-02 +1.64439678e-01 +3.63917321e-01 -8.76903474e-01 -1.31637704e+00 +3.05659890e-01 -7.14395463e-01 -4.24543530e-01 +1.83805251e+00 -9.88176823e-01 +2.71572620e-01 +6.59165531e-02 -1.28498936e+00 +2.96231270e-01 -8.67112577e-01 -1.15805316e+00 -8.55532810e-02 -1.12577212e+00 -8.00683856e-01 +6.01262987e-01 +6.51320070e-02 -1.46924722e+00 +1.84409544e-01 +3.02744389e-01 +6.21710777e-01 +7.59798169e-01 +1.11520326e+00 +1.72353101e+00 
#Parameter# /_10 {10,10} 1601 ZERO_GRAD
-5.97167552e-01 -3.35810632e-02 -1.59203276e-01 -5.04102826e-01 -8.44430387e-01 -3.13006252e-01 +4.09787118e-01 +2.18165651e-01 +6.91566914e-02 +3.65249723e-01 +1.23352684e-01 -6.84409261e-01 -3.20757776e-01 +1.08311355e+00 +4.25588757e-01 -7.00590312e-01 -2.13175774e-01 +4.48768884e-01 -4.67130020e-02 -3.60439301e-01 +7.77635098e-01 -3.35118383e-01 +2.48670444e-01 +3.06560807e-02 -5.59273958e-01 +3.30679148e-01 -1.03264797e+00 -2.75414377e-01 +2.86992997e-01 -8.15353990e-01 -2.51048684e+00 -2.53146410e+00 -9.79544640e-01 -7.34952986e-01 -5.65641046e-01 -5.32888842e+00 -4.79918957e+00 -6.53007627e-01 -4.36681366e+00 -3.14661598e+00 -3.01149309e-01 +6.90402508e-01 +5.83968818e-01 -3.56438726e-01 +1.99502259e-01 +1.38211274e+00 +1.46868742e+00 -4.14137751e-01 +9.03292716e-01 +1.99479416e-01 -7.65082091e-02 +2.77577966e-01 -1.06864798e+00 +5.93214750e-01 -1.45813668e+00 -9.00675833e-01 -8.52261245e-01 +1.23684740e+00 -9.65567529e-01 +2.07166463e-01 +1.41318232e-01 +3.92573684e-01 +4.22236323e-01 +6.54792130e-01 +4.63972420e-01 -2.52509058e-01 +1.15076751e-01 -2.85659790e-01 -1.42716920e+00 +1.17510788e-01 +7.22010314e-01 -9.26624909e-02 -8.24747741e-01 +5.90915859e-01 +1.05998468e+00 -3.71334404e-02 -6.19355381e-01 +1.03941572e+00 +2.40650252e-01 -4.01983052e-01 -2.77460575e-01 -1.08962572e+00 -4.94825602e-01 -7.81610429e-01 -1.21456707e+00 -1.75945914e+00 -1.95350623e+00 -6.90404236e-01 -5.69604158e-01 -3.58021647e-01 +1.13689296e-01 +8.21242690e-01 +9.46992934e-01 +1.38100398e+00 +1.53975117e+00 +8.46373975e-01 +1.64149153e+00 +3.11687797e-01 +1.28292656e+00 +2.87754446e-01 
#Parameter# /_11 {10} 161 ZERO_GRAD
+2.28769779e-01 +1.86018217e+00 +7.66486108e-01 +1.39716065e+00 +1.47148573e+00 +8.79364848e-01 +1.19601667e+00 +4.48654622e-01 +6.30022228e-01 -1.81719244e-01 
#Parameter# /_12 {10,3} 481 ZERO_GRAD
-4.25484776e-01 +5.54036915e-01 -6.57974720e-01 +1.39030516e+00 -1.02574587e+00 +2.58042812e-01 +4.28780198e-01 -3.26187998e-01 -3.81862313e-01 -3.56171764e-02 +4.53822792e-01 +9.33872640e-01 +1.44225252e+00 -1.76411748e-01 +4.31391954e-01 +1.81482688e-01 +7.47622550e-01 -2.57722735e-01 +5.95144451e-01 -3.11933249e-01 -2.30187908e-01 -8.90041292e-01 -1.16705823e+00 -9.23716307e-01 +6.18275940e-01 -3.84772897e-01 -1.03467143e+00 -4.27198201e-01 -9.27949011e-01 +3.23044926e-01 
#Parameter# /_13 {10,10} 1601 ZERO_GRAD
+1.80188462e-01 +8.17395598e-02 -5.27284205e-01 +4.99975443e-01 +2.03657031e-01 -8.26322138e-01 -6.68977797e-02 -1.35999072e+00 -7.52548039e-01 -2.88613766e-01 +7.30907559e-01 -3.89695376e-01 -3.85791659e-01 +5.98109543e-01 -3.98820013e-01 +1.52415252e+00 +1.54149503e-01 -8.10603797e-01 -8.63713399e-02 +3.13188285e-02 +1.55167252e-01 +3.84241790e-01 +4.75629449e-01 -4.63731512e-02 +2.94907123e-01 +7.05621421e-01 +1.75006151e-01 +3.08070928e-01 -5.21365345e-01 -5.32599509e-01 -1.43266767e-01 +1.67160928e-02 -2.05048990e+00 +1.44499838e-01 -5.07936180e-01 -5.41829884e-01 -4.61003840e-01 -2.60151339e+00 -4.55354862e-02 -1.12561631e+00 -6.66934192e-01 +3.50676149e-01 +6.84040606e-01 -5.74917912e-01 +1.40857995e-01 -3.71096700e-01 +5.40728271e-01 +4.74345714e-01 -8.56131315e-01 +4.07164156e-01 +2.79768968e+00 +8.47254992e-02 +4.62880045e-01 +1.42598093e+00 -2.99740553e-01 +5.95307574e-02 -4.44985062e-01 -5.58819711e-01 +1.72272968e+00 -8.85803103e-01 +6.83067679e-01 +1.65003151e-01 +4.92612928e-01 -1.72698572e-01 -1.08874083e-01 +3.94042403e-01 -4.24296670e-02 +5.22279680e-01 -1.53366804e-01 -5.61102331e-02 +7.52129316e-01 +7.07668424e-01 -1.66102335e-01 +6.21868186e-02 +4.54632968e-01 -5.67211807e-01 +8.31016243e-01 +4.29304987e-01 +3.97814959e-01 -2.24523455e-01 +4.04643416e-01 -2.86806643e-01 +8.43994096e-02 +2.43167445e-01 +2.38135517e-01 -6.76750392e-02 -8.47603500e-01 -3.96304131e-01 +5.22672832e-01 -5.58942497e-01 -1.21376984e-01 +7.68834651e-01 -1.64228231e-01 -2.30444223e-02 +4.02824581e-01 -4.96990114e-01 +1.32953674e-01 -2.70218611e-01 -9.67586160e-01 +7.38354981e-01 
#Parameter# /_14 {10} 161 ZERO_GRAD
+5.56705475e-01 +3.66973579e-01 -4.30422604e-01 +3.11950356e-01 +2.37856701e-01 +1.27072290e-01 +3.21390241e-01 +8.11349154e-02 -3.83435130e-01 +7.00903058e-01 
#Parameter# /_15 {10} 161 ZERO_GRAD
+9.99786794e-01 -4.54728633e-01 -8.94017994e-01 +1.01964965e-01 -3.15235317e-01 -4.53409344e-01 -6.68189168e-01 -2.69036442e-01 -4.01434690e-01 +9.88330305e-01 
#Parameter# /_16 {10} 161 ZERO_GRAD
+7.31298625e-01 +4.49665934e-02 -2.81575710e-01 +2.61129975e-01 +1.74224168e-01 +9.17117000e-01 -7.57950366e-01 -9.82295513e-01 -1.20987964e+00 +7.97863126e-01 
#LookupParameter# /_0 {3,4} 193 ZERO_GRAD
-5.77667296e-01 -5.62720239e-01 +1.55319858e+00 -9.53725219e-01 +1.05109370e+00 -1.49521065e+00 +6.95776641e-01 -1.72496164e+00 -1.35313165e+00 +9.86618996e-02 +7.09689498e-01 -1.41257107e-01 
